{
    "weights": [
        [
            [
                -0.13004877999752482,
                -2.3278009081650337,
                -0.38093793072126203,
                -0.0957706799420269,
                -0.13689432558697873,
                0.09589949046786478,
                -0.5639399406895853,
                0.7957941471337849,
                -0.05805421983102672,
                -1.1044533772820195,
                0.45308364127620404,
                0.04104418204550642,
                0.21653876761595486,
                -0.0014797278457416832,
                0.5275579017573337
            ],
            [
                0.6828704710546303,
                -2.5649000202001937,
                -0.11108514209783484,
                -0.10156737272143605,
                0.2568801897101394,
                0.011593154811352577,
                -0.41958121254018504,
                0.39474780361483197,
                -0.053620485917444484,
                -1.0501817175332422,
                0.3194316477678752,
                0.016599107363782072,
                0.18131668283707345,
                0.004884691663446674,
                0.32889426304797253
            ],
            [
                0.11211024048874428,
                -2.1607343424644565,
                -0.5959200094355926,
                -0.1704986833502076,
                -0.22328638638410267,
                0.11789973025426213,
                -0.757981695598624,
                0.3018220275953686,
                -0.29779098979537627,
                -0.9872704761886373,
                1.0398133277239465,
                0.4012605839116707,
                0.48522760803847426,
                0.33373418860490855,
                0.004291042313905762
            ],
            [
                0.039242597835690576,
                -2.1929633673100217,
                0.17504627535736514,
                -0.6442055478987723,
                0.1952738527936904,
                -0.3651890169220998,
                -0.2252351460974069,
                0.5869278184519761,
                -0.29754959789949353,
                -0.9720250632852488,
                1.2208866686249897,
                -0.08716377600527934,
                -0.18623495438504592,
                0.1144707733001541,
                0.5722136156617095
            ],
            [
                -0.06075994210450011,
                0.018856019535039556,
                0.02841478828927194,
                -0.46496984709800115,
                -0.16433067947471494,
                0.1143445560022744,
                0.3738692389446445,
                1.4310276325440967,
                0.6008435601620067,
                -1.843537188926341,
                -0.43337632865569936,
                -0.000459111535155923,
                -0.9491078759891414,
                -1.3778186002950121,
                -0.24667148073731632
            ],
            [
                0.2023262056939815,
                -0.07317301516868321,
                0.22490851034926218,
                -0.3478735646146691,
                -0.010065668407614196,
                0.011914503372657497,
                -0.12387957262150648,
                1.8202441230395947,
                0.07091096847500644,
                -2.1731841478267206,
                -0.48582107460205726,
                -0.3730572258305207,
                -0.8849779498551189,
                -1.3381314125822077,
                -0.48703006349810113
            ],
            [
                0.8703412130466609,
                0.20059773841087516,
                -0.04819041540885648,
                -0.7744353237036761,
                0.0021216336421277285,
                -0.3538825840697779,
                0.4240312294318565,
                1.4756503164299035,
                -0.5042271955348657,
                -2.1165895175626668,
                -0.23483150300431097,
                0.4543307005198462,
                -1.1401487683912328,
                -0.6482621149867156,
                -0.7470348985531753
            ],
            [
                -0.05836434832248812,
                0.004428288119137437,
                -0.40858440829010734,
                -0.642663087488315,
                0.3362960699089752,
                0.10996264327033223,
                0.44388133439876504,
                -0.04427154601826858,
                -0.032830582948716415,
                -0.7630799645328518,
                1.4680651624034164,
                0.2785351441567472,
                -0.40249383272910805,
                -1.9526280033810073,
                0.0822893650271507
            ],
            [
                0.21594592166890517,
                0.44733163809692156,
                -0.5059451297069505,
                0.14135420457305997,
                -0.10079977932115666,
                0.06693524880602228,
                0.08826395137969309,
                0.3574006278983989,
                -0.1740389721598678,
                -1.0159348062060976,
                0.584769762205049,
                0.3109516142692145,
                1.0690513040096772,
                -1.9185737091298483,
                -0.05043168548801573
            ],
            [
                -0.03817056041814151,
                0.7767976125536814,
                0.028682466343571928,
                -0.03192197154315318,
                -0.12809425459479348,
                0.1944933391132633,
                0.1389933419151264,
                0.3091424824483095,
                0.06972198596596116,
                -0.11997529469205476,
                1.5431026559576342,
                -0.14978308214564118,
                0.7996281909528328,
                -1.6826974496611349,
                -0.12412290284564372
            ],
            [
                0.29489517280036587,
                0.3897904226160031,
                -0.23259706396700452,
                0.4086556823735014,
                -0.1302675254390177,
                -0.18671542574397595,
                0.4046813775048019,
                -0.2413875475268421,
                0.4011687106823715,
                -0.21154754595294256,
                0.6669264986947842,
                0.12168927306684804,
                0.6125840081329432,
                -0.8509850627191647,
                -0.37514483400748794
            ],
            [
                -0.07766408142514604,
                0.5490713034758516,
                0.25629286592317185,
                0.2601289813662959,
                -0.12350160528557613,
                -0.07804791416313979,
                -0.16942823319314268,
                0.09024267279857165,
                -0.07189755282142894,
                -0.05472028175899062,
                0.4322699758879424,
                -0.3399964868312164,
                0.03876395849891668,
                -0.2000733805113677,
                0.17986285821233672
            ],
            [
                -0.44390366007505494,
                0.19860222478967654,
                -0.10618754543169456,
                0.40260468495116014,
                0.19197155914431824,
                0.325631834115734,
                -0.008010117700839668,
                0.0595073093847126,
                -0.2369041121213966,
                -0.1153660020359505,
                0.17073440570662973,
                0.10840342198858655,
                -0.05989493770399366,
                -0.25227496268012184,
                -0.05763539856252521
            ],
            [
                0.23224217639148534,
                -0.05889691934630488,
                0.0093969493504233,
                0.3797462219180215,
                -0.4136017159048975,
                -0.42727486159467637,
                0.09462199663683743,
                0.02382855489535723,
                0.11419423890920151,
                -0.25930123532750493,
                -0.005087240887493189,
                -0.03251987922688439,
                -0.26040878731148204,
                0.1706156109502672,
                -0.19763107702118415
            ],
            [
                0.09004396794159872,
                -0.4668549363413415,
                -0.03314500343159347,
                -0.3209992023000585,
                -0.011634384895650513,
                0.0019493082665600241,
                -0.06265984486552535,
                -0.13703112676701004,
                -0.4677613887568508,
                0.0387823199047464,
                0.10269351474872136,
                0.8415227024569809,
                -0.16422462714868283,
                -0.10467801280625498,
                -0.4930637293688393
            ],
            [
                0.03349796391018331,
                0.041821538067530896,
                0.1667319807237192,
                -0.10055752863658503,
                -0.05025419224099847,
                0.10203473959755063,
                0.11430479645353292,
                -0.08351940139162095,
                0.16711843704884716,
                -0.01684673426072066,
                0.32406753830101254,
                -0.012212705280465457,
                -0.23588794013257858,
                0.24148798513560454,
                -0.0721364867623902
            ],
            [
                0.014607941803050334,
                0.15228203879582575,
                0.1904871334307187,
                0.12409073373822421,
                0.02883952244160084,
                -0.2864812783540406,
                -0.19899594056439454,
                0.08195232999232135,
                0.17061142669226462,
                0.16273518057306766,
                -0.03541590896841566,
                0.05616235728170878,
                0.019673171472686893,
                0.09134749261061069,
                -0.06594007654536735
            ],
            [
                0.22549703917975464,
                -0.2269628534276825,
                0.13604333207665295,
                -0.5053910666278726,
                -0.04172503649750306,
                -0.15370010718647473,
                -0.0034645401346652233,
                0.01909940066020026,
                0.01730874032876937,
                0.018489398190826258,
                0.04399903648640442,
                -0.43221871913458076,
                0.09376416587566175,
                0.2333540458284216,
                -0.351339378001345
            ],
            [
                0.06208581339644577,
                0.24983457450834404,
                -0.3706302307131031,
                -0.01730093936673476,
                -0.32817325404573405,
                -0.23024570969350178,
                -0.19685129106645807,
                -0.3752714195342124,
                0.7251561431214846,
                0.018884218720817848,
                -0.22486687357460397,
                -0.014590800830332325,
                0.11394503503926619,
                -0.09072849269524445,
                -0.20544095914460606
            ],
            [
                -0.2871408867812437,
                0.24850048263034252,
                -0.36104319184867656,
                0.28522144747076356,
                0.07859186772616855,
                0.18561592403393554,
                -0.0565770476732233,
                -0.008578016227578809,
                0.2622915224010796,
                -0.22086636889972117,
                0.2599567196865158,
                0.0043207538303281865,
                -0.034324581660457425,
                -0.1961003481635125,
                0.30319300705813695
            ],
            [
                -0.12473101021789566,
                -0.2380559207371994,
                0.020590567324962422,
                -0.20907868698631404,
                0.19175570940984377,
                -0.44309706627117346,
                0.29966772164852395,
                0.09027485013103845,
                0.12802790895986757,
                -0.10277977251457739,
                0.023062208066805905,
                -0.18596450798903352,
                -0.044038426563170426,
                0.024315042734234956,
                -0.03316508514416716
            ],
            [
                0.12565602886002003,
                0.130177353850855,
                0.5818974721104124,
                -0.016505883011454964,
                0.4099926979678511,
                0.05517506951639624,
                0.11254814032185374,
                -0.2833586151247732,
                -0.061148861576257096,
                -0.10272429976606924,
                -0.11993048692298659,
                0.07622114004039791,
                0.08099729407027277,
                0.12204887043311101,
                0.1881537627019922
            ],
            [
                0.6284261464363552,
                0.11575697225672663,
                0.2039070369476527,
                0.3827491252336543,
                -0.3228134679100984,
                -0.048921967739323474,
                -0.2789893192911392,
                -0.02199020662977174,
                0.29436093099720256,
                -0.0978074394509631,
                0.10189529972536328,
                -0.5124703338167006,
                0.08199185056789655,
                -0.008397335913348764,
                0.1337326571095574
            ],
            [
                0.03266969526751443,
                0.034271559216618404,
                -0.4594509705163064,
                0.36581018613967936,
                -0.09607188174735856,
                0.36177106367767203,
                0.2871407546939049,
                -0.40217085363422594,
                -0.2784341585554803,
                -0.017822366835695522,
                -0.05766538082549652,
                -0.5669357239380698,
                -0.1346438342541572,
                0.13115286570663098,
                -0.3002877816032797
            ]
        ],
        [
            [
                -0.646511782593785,
                -0.8379119952939508,
                -0.35633712048906835,
                0.16355864745271534
            ],
            [
                0.20877032518403646,
                1.5082888319420424,
                1.7226007881590535,
                -2.4175645646792563
            ],
            [
                -0.6775891011355621,
                -0.16835560360845575,
                0.1737892067341725,
                -0.4930619527489626
            ],
            [
                0.2430888809352473,
                0.5913663337145294,
                -0.27074510101814825,
                -0.16395890010371994
            ],
            [
                0.43017549823512213,
                0.5139717175411784,
                0.2552896638320295,
                0.5118445610274
            ],
            [
                0.4100636461998628,
                0.06664139156392473,
                -0.0302808460672426,
                -0.4631864805691521
            ],
            [
                -0.33217138010970015,
                -0.01223088152977765,
                0.6018945142475138,
                -0.035195558379211386
            ],
            [
                -1.2571445723841344,
                -1.004672709090394,
                0.8129889906862348,
                1.4168341719019515
            ],
            [
                0.11505321650996507,
                -0.2754316221551944,
                0.046080846549661936,
                -0.19315138229632567
            ],
            [
                2.6157307430309986,
                1.4092236505269384,
                -1.7617555191978198,
                -1.6841434265871469
            ],
            [
                -1.792186391193179,
                -0.02964955833079881,
                -0.5617330869279545,
                0.7248792992570378
            ],
            [
                0.1813292046763601,
                0.4813629199488939,
                0.47162069661521566,
                0.720435507018493
            ],
            [
                -0.31731897474153503,
                0.7389537403532572,
                -0.5321508834825835,
                0.24184578323741138
            ],
            [
                1.8190781031913736,
                -1.2309133524106888,
                -0.8938547196857929,
                -0.15213229434491268
            ],
            [
                0.1579011201360018,
                0.18679371081222026,
                -0.8072332042684514,
                0.040492071740241956
            ]
        ]
    ],
    "biases": [
        [
            -0.8115201869387458,
            1.0291063973551995,
            -1.8013330195157748,
            -0.5987495206820478,
            -0.08893432002436547,
            -0.8760958011340548,
            -0.20198990887821489,
            1.124415792448066,
            -1.2723148323664477,
            2.9554294956390392,
            -0.5110057141888079,
            0.008990406509867861,
            0.3925487023057463,
            1.835855121930431,
            1.216865785251682
        ],
        [
            -1.4257263791400427,
            -1.0210622181948001,
            -0.011367547631277338,
            0.8426246574998085
        ]
    ],
    "Epoch": 1
}